{"W1": [[0.4967141530112327, 0.03118913049475213, 0.647688538100827, 1.5230298564080254, -0.23415337472333597, -0.24639935217461276, 1.592496197633819, 0.7674347291529088, -0.4694745933138215, 0.5425600435859647, -0.4710810174007898, -0.4657297590601342, 0.24196227156603412, -1.913280244657798, -1.7249178325130328, -0.5622875292409727, -1.0628608013110132, 0.3142473325952739, -0.9201653004390875, -1.407011850353233, 1.4662761644374889, -0.22785401541308253, 0.06752820468792384, -1.4247476766438272, -0.5443827245251827, 0.11092258971597772, -1.1509935774223028, 0.3756980183455586, -0.600638689918805, -0.2916937497932768, -0.6017066122294449, 1.8522781845089378, -0.013497224737933921, -1.0577109289559004, 0.822544912103189, -1.2208436499710222, 0.2088635950047554, -1.9233003462773801, -1.3281860488984305, 0.18702539376674118, 0.7513895215794123, 0.171368296031125, -0.11564828238824053, -0.25613710250606486, -1.4785219903674274, -0.6648014927177254, -0.4606387709597875, 1.0571222262189157, 0.3436182895684614, -1.763040155362734, 0.34445328559497446, -0.38508228041631654, -0.6769220003059587, 0.6116762888408679, 1.0683960840284616, 0.9312801191153279, -0.8392175232226385, -0.3610583485469746, 0.35846956402616076, 0.8330503255535667, -0.47917423784528995, -0.18565897666381712, -1.1063349740060282, -1.1962066240806708], [0.812525822394198, 1.5052622937842526, -0.0720101215801118, 1.0035328978920242, 0.36163602504763415, -0.6757360889358899, 0.33082664192493644, 1.5380365664659692, -0.035826933778140856, 1.5646436558140062, -2.636383751108013, 0.8219024986527017, 0.08704706823817122, -0.29900735046586746, 0.0917607765355023, -1.9875689146008928, -0.20328604523907529, 0.3571125715117464, 1.4702732295982641, -0.4952578962237563, -0.8035202267779327, -0.6181806053605653, 0.9154021177020741, 0.32875163174184424, -0.5297602037670388, 0.5132674331251793, 0.09707754934797722, 0.9686449905325492, -0.7020530938773524, -0.3276621465977682, -0.39210815313238984, -1.4635149481321186, 0.29612027706457605, 0.26105527217988933, 0.00511345664246089, -0.23458713337514692, -1.4153707420504142, -0.38308036955798486, -0.3427145165267695, -0.7323597306204909, -0.019518176585552417, 0.40405089284829504, 1.8861859012105302, 0.22794788330665017, 0.25755039072276437, 0.04634289454053879, -1.9187712152990415, -0.026513875449216878, 0.060230209941026173, 2.463242112485286, -0.19236046336309268, 0.30154734233361247, -0.03471176970524331, -1.168678037619532, 1.2096723390840036, 0.7519330326834984, 0.7910319470430469, -1.0183957046955863, 1.4347853508367638, -1.5694783461280202, 0.5868570938002703, 2.1904556258099785, -0.9905363251306883, -0.5662977296027719], [0.09965136508764122, -0.41369578988718697, -1.5506634310660334, 0.06856297480602733, -1.0623037137261049, 0.43918092607316056, -0.9143488924882296, 1.5499344050175394, -0.7832538932317497, -0.3220615162056756, 0.7944462817664397, -1.2308643232575747, 0.22745993460412942, 1.307142754282428, -1.6074832345612275, 0.1846338585323042, 0.19054138204498175, 0.7818228717773104, -1.2417956003083397, -1.3049959361192685, 0.5235351605089308, 0.24014506448555673, 0.25049285034587654, 0.34644870336143563, -0.6800247215784908, 0.23225369717192967, 0.2930724732986302, -0.7143514180267585, 1.8657745111447566, 0.4738329209117875, -1.1913034972028653, 0.6565536086338297, -0.9746816702273214, 0.787084603742452, 1.158595579007404, -0.8206823183517105, 0.9633761292443218, 0.4980834159732316, 0.82206015999449, 1.9205023112409554, -0.26790416581996307, -0.753736153091255, -0.8895144296255233, -0.7880193647710597, -0.0771017094141042, 0.40502336203540024, 0.27669079933001905, 0.8271832490360238, 0.013001891877905243, 1.4535340771573169, -0.24774902724688994, 2.720169166589619, 0.6256673477650062, -0.8571575564162826, -0.9977186376713687, 0.48247241524080137, -0.2234627853258509, 0.6087402498769156, 0.5248033401892809, -0.20887970706267486, -0.846793718068405, -1.5148472246858646, -0.4465149520670211, 0.8563987943234723], [0.21409374413020396, -1.1107038978566113, 0.17318092585141331, 0.3853173797288368, -0.883857436201133, 0.10416145443699322, -0.019268418364701806, -1.142970297830623, 0.35778601842271335, 0.5607845263682344, 1.0534795108198765, 1.053802044897434, -1.377669367957091, -0.9378250399151228, 0.5150352672086598, 0.5137859509122088, 0.4557937132262731, 3.852731490654721, 0.5645522394367783, 1.1700590799501969, 0.9565271193134101, 0.5781314071915598, -0.3152692446403456, 0.7589698504082869, -0.7728252145375718, -0.23681860671609298, -0.4853635478291546, 0.08187413938587493, 2.3146585666735087, -1.867265192591748, 0.6862601903741624, -1.6127158711896517, -0.47193186578943347, 1.088950596967366, 0.06428001909546277, -1.0777447779293061, -0.7153037092599682, 0.7433990541382495, -0.7303666317171367, 0.2574812254974552, 0.07889603583493833, -0.651600329766676, 2.1439440893253257, 0.6765652537807892, -2.025142586657607, 0.28314591265703204, -0.661786464768388, 0.852433334796224, -0.7925207384327007, -0.11473644146689901, 0.5082258194533794, 0.8657551941701215, -1.2002964070557762, -0.3345012358409484, -0.3837062186625203, -0.6533292325789751, 1.7654542402810969, 0.24941536423825403, -1.197742765593942, 0.7544846578760598, 2.1221561970126332, 1.0324652605511468, -1.5193699659540134, -0.48423407286625136]], "b1": [[0.0, 0.0009130780749190943, 1.6964880275274585e-15, 0.0, -4.589603115641051e-40, -0.000409129633028847, -0.00013009108245453833, 0.0, -9.72316492981591e-09, 0.0, -0.00021915989664818012, -7.843112824371801e-11, -1.3893935133414862e-34, -3.1925295349393736e-22, 3.575280937005261e-27, 7.427395591928542e-38, -0.0005302039250856129, 0.0, -5.25125183280086e-05, 0.0002481693448481208, 2.61310624072686e-05, -5.204212530000114e-05, 0.0, 6.622252181825414e-09, 1.3798598993256873e-77, 1.7449100024024679e-13, -3.6412311950258654e-16, -4.7031332250218765e-15, 0.0, 8.698031758316735e-75, -2.5325134568812408e-15, 1.6726123974095993e-31, -1.8731615859855336e-24, 0.0, 0.0, -6.502156333627475e-94, 7.167712545520906e-34, 0.0006897544673619142, 4.5418304950377366e-27, 0.00034341821589163656, -0.0002456342225991238, 1.8778317535745077e-10, 0.0, 0.00034896052074810923, 3.7974021218987504e-80, 0.0008804762352824021, -1.3804550746087122e-85, 0.0, -1.938192312645176e-17, 0.0, 3.035521965791853e-05, 0.0, -3.593405588491364e-35, -4.8776320828373576e-58, 0.000789621976759752, -3.789037408429929e-14, 0.0, -0.0013247813316794328, 0.0004924490591939701, -0.002312068250214408, 0.0, 0.0, -2.9171409480921748e-124, -1.5724976133834513e-21]], "W2_bp": [[1.405150123797501, -0.8537860505958332, 0.45169703851240256], [0.5051326963545495, -0.6757719083702535, -0.04118256219484122], [-3.2412673400690726, -1.0243876413342898, -0.2525681513931603], [-1.109544207353971, 1.4862947189545799, -1.422263767594459], [-0.44004448669698376, 0.13074057728609134, 1.4412732890661155], [-1.4355916516740153, 1.1627183022796062, 0.010408011389516329], [-0.8408336175857887, 0.3658791544392352, 0.15460898193534323], [-0.4619779025479153, -0.07631449998703436, -0.3774359864955861], [0.11351732967955334, 0.6621307098636345, 1.5860167963744585], [-1.0995765242159705, 1.9869167896792104, -1.9442101891563282], [-0.15121288685561127, 0.587763696886722, 0.28097316915291604], [-0.4844605446748556, -0.35423883478919527, -0.48512332537264924], [-0.5893647569442115, 0.8496020970210246, 0.35701548596504734], [-0.6929095952606542, 0.8995998754332507, 0.30729952087660933], [0.8128621188389601, 0.6296288419236122, -0.8289950109220723], [-0.5601810401969696, 0.7472936051232618, 0.6103702654334648], [0.18517912517540008, 0.056720284788603206, 1.132191275169053], [-0.45333241422495063, 0.400980796192985, -0.19431504206772], [-0.08061203769297583, 0.9684758042262751, 0.8186482312147013], [0.8096975138573366, 1.3133573856314917, 0.016937385298899932], [0.8201562908682158, -0.45637159442084074, 0.33206787074257443], [0.3275642481484706, -0.28616593408999913, 0.5206116220034754], [-0.6799817086225932, 1.9462706907084046, -0.998139771133529], [-1.0759496341204537, 1.0119942928639756, 0.799540295931748], [0.6241198170521551, 0.6283455092642799, -0.012246772846914623], [-0.7590153968748355, -0.07031202678359955, -0.6692841011457822], [0.9751197334177512, -0.14705738150213865, -0.8254971967925115], [-0.18314686704211297, 0.2668148692985761, -0.5558469424378072], [-0.6839814209555521, 0.09757062651485897, 0.2528441814748969], [-0.5069431753711298, -0.4710383056183228, 0.2320499373576363], [-1.4480843414973241, -1.4074637743765552, -0.718444221252436], [-0.21344715171184725, 0.3109075655980046, 1.475356216949552], [0.8576596232020194, -0.1599385299634271, -0.01901620790268883], [-0.8642903900269295, -0.16462972096944287, -0.2807810285539642], [0.4609575349489687, -0.9733475285293754, 0.527224124607346], [1.5327389130025777, -0.1087601484568576, 0.40171172209894146], [0.6901439917111125, -0.40122047188583626, 0.22409248181041677], [0.1361818461231227, 0.07314002168859565, -0.872063152336558], [0.024510174258942714, 0.49799829124544975, 1.4511436077950417], [1.0952125613702777, 2.0037530879690846, -0.7538599286306451], [1.0102645465063989, 0.042523078755239356, 2.1926779504150606], [-0.808298285823454, -0.8397218425550615, -0.5993926446014329], [-1.9856567496989297, -0.6718716066578135, -0.7512550511875242], [0.2773188971527383, 0.22737176013132887, 1.8636299441851865], [0.9504238381860503, -0.5769036556624031, -0.898414671348358], [0.6283496465483103, -1.462552066274826, 1.837347150066732], [1.179440120721287, -0.4691756521047048, -1.7131345290908775], [1.4921113487762914, -0.26065643022967094, 1.2456939223396355], [-1.594427658794367, -0.5993750229537729, 0.005243699718183166], [0.1852195683756205, -0.5961820564562962, 0.6307275427136725], [-0.9285574842440459, -0.28293323786618585, 0.12178643941824296], [0.6526778086696283, 0.5654982931118373, -1.1167644814716955], [-1.5341141707356223, 1.277676821898509, 0.33231401197959165], [-0.7484865365565536, 1.551151975522523, 0.11567463429285867], [1.3011093630589832, -0.02582536842789228, 2.0322795957248383], [1.8935798170540945, -0.39508073345614747, 0.979448561320538], [0.7836149241960269, 1.2225149725552933, -0.9570458502139307], [0.6911241863485499, 1.0495674264163566, -1.7549551523399944], [-1.059479257081929, -2.173175305603626, -0.2592429621848834], [0.8134001836741789, 1.347505464483174, 0.13308844015441185], [1.7668545201821702, -1.5262180431919468, -1.695504828988981], [0.0826912757142602, 0.23794886396225434, -0.024817137727918888], [-2.0674421000398766, -0.08912003951278841, -1.3044695005048532], [0.6696725488300385, 0.36659824609684827, -0.9398797863273552]], "b2_bp": [[0.13823897461087847, -0.14611658497705296, 0.007877610366174247]], "W2_bg": [[-0.4512627602384594, -1.0976714000907124, -0.0868253761696455], [0.7184286737767795, -0.5816965512587845, 0.3367306671655447], [-0.5302576183724408, -0.7928728322623442, -0.10703035995455783], [-0.9726381653211399, -0.5921071835489433, -1.2220241714853233], [1.9647251329163893, 0.03526355197172861, -0.6997255079925856], [0.2141783295729033, -0.11240202493538669, -0.22109404312734765], [0.5338150734188508, 0.7211506306569332, -0.41379244159557865], [-0.5132140835464456, -0.31350957535340496, -2.326067443632053], [-1.515190978199866, 1.3668742078778708, 1.6449676890692528], [-0.18643188245814407, 0.5380990848540051, 0.2871038756470625], [3.079462383584838, 1.1193600603739566, -0.12828431554974348], [-0.8929362832422719, -1.6449041987778072, 0.179317357029309], [-0.7563507452843033, -1.4222537095976742, -0.6465728842425266], [-1.081548003614395, 1.6871416350725648, 0.8816397569494505], [-0.007972641316617372, 1.4799441388900259, 0.0773683076476183], [-0.8612842013282637, 1.5231240772696573, 0.5389100436846587], [-0.535220816543623, -0.30629058777359663, -1.261691681477602], [-1.3201955738661004, 0.8877196693298801, 1.8852703615736557], [-1.3472525718098491, 0.5421786199254524, -0.6811669543660012], [-0.4674255437096858, -0.6068549196648043, -0.8692296143088892], [0.11113437671379732, -0.8693871704688825, 0.2462811310687126], [0.21789450255568443, -0.6164037665109303, -0.7982405544018999], [-0.5141671734700983, 0.7169333476239947, 0.4767709087279072], [-0.9149510865737771, 0.060874436205394046, 0.7272408343708476], [-1.6694052811213718, 0.543360192379935, -0.6626237589458467], [0.6332028256915535, -0.8017170347458086, -1.8290283795596205], [-1.6275424378831627, 0.048084946661381994, 0.25972250172148187], [-0.8417124680061756, 0.6001345805756101, -1.6856663411654305], [-0.0034756415490825357, -1.2494740779642175, -0.6759823866986351], [0.047398671316414016, -0.8604133652839524, -0.38455554422982535], [1.0062928092144405, -0.5768918695231487, 0.8356921120651418], [-1.129706854657618, 0.5298041779152828, 1.4415686206579004], [-2.4716445001272893, -0.7968952554704768, 0.57707212718054], [-0.14044122894475844, 0.3326879951695479, -0.6281314656122965], [0.14919394457113408, -0.19413511359383964, 1.1436357827633326], [0.2544208433012131, 0.3376026620752022, -0.4118769661224674], [-0.48760622407249354, -0.4325581878196209, 0.39445214237829684], [0.058946227063627524, 0.23216037489101307, 1.6530845727669483], [0.8711247034316923, -0.32602353216784113, 1.2012139221639448], [-0.34324702468008045, -2.07154361475477, -1.0394955796819643], [-1.8099111318433756, -0.40269704872270146, 0.008721154688462655], [1.6764373118315692, 0.3269273746476434, -0.2191005292486306], [0.8920097382817236, -2.2495931872096455, 0.21146827921209255], [0.8139935613795835, -1.489968792641265, 1.1120082225757384], [0.3384964074944141, -0.4152879139008013, 0.6327818661062848], [2.3317707449999654, 0.14539477895614275, 0.22361417520711532], [-0.4593608995402441, -0.8498443694647918, 0.8303358165442456], [-0.7934796688106328, 0.03310835901763229, -0.5018037256615928], [0.47897982574639186, 0.3336621052869483, 1.0375399442578992], [-0.4474122417565128, -0.3083328134951322, -1.0029099946787825], [-0.3595182267041965, 0.3253798590657303, 0.7241342172525591], [-0.859561167079391, 0.8311480419038989, 1.331491579908476], [0.41343490322370086, 1.876795812558066, -0.773789199103573], [-1.244654703311417, -1.7787202489042786, 1.496044311489183], [0.6612189841599637, -0.07117586962218012, 0.28870649722563946], [-1.062884890200203, 2.4072941014151064, 0.10507490307877569], [0.1719989517031271, 0.6873087456969307, 0.45686295284023964], [0.22866038798979452, -0.7911406937356766, 0.46735823171569885], [1.926579097046223, 1.3175083105973948, 1.5765437616257927], [-0.4948745573809324, -1.0167759761044657, -0.11495688330401654], [0.1183290693869284, 1.0557336402691877, -1.7166109086112942], [1.5921544765588493, -0.19646577678074958, -0.4510273488438936], [-1.0121043752601675, -1.6548566718657693, 0.8231705839619146], [0.07331796718840389, -1.2899608997410539, -1.295078772063616]], "b2_bg": [[0.06260415709823401, -0.03845787820176023, -0.024146278896473746]]}