{"W1": [[1.764052345967664, 0.4001572083672233, 0.9787379841057392, 2.240893199201458], [1.2872789019545774, -2.732353214646697, 0.07834885535606717, -1.4247364858084894], [-0.10321885179355784, 0.41059850193837233, 0.144043571160878, 1.454273506962975], [0.7610377251469934, 0.12167501649282841, 0.44386323274542566, 0.33367432737426683], [0.8186073512903661, -1.3773579510892824, -0.44007229191203256, -2.019935148541483]], "b1": [[0.0], [-0.011594678714626135], [0.0], [0.0], [-0.010047576010389392]], "W2": [[-2.122749474708199, 0.7115687054977156, 1.294676539985387, -0.31192467928055817, 2.164578942360516], [-1.605451897140647, -0.2526254131137299, -0.3382700725677035, 1.3816929918165752, 1.3145504619067252], [0.6691314971118225, 0.6834283709913747, -0.37360167621520396, -1.4666123968090123, -0.2466316943250001], [-0.2642152881138036, 0.5693328557493724, 0.7818155915666811, -0.8078910746256823, -0.49341591852884115], [-1.0056847407135985, -1.1048976593921607, -1.6634019662715187, 1.9936436195852836, -0.41416992930940655], [-0.30370085174379763, -0.9649491401514638, 0.9118638056993539, -1.4795243976905395, -0.11556738088138371]], "b2": [[0.4302403411258815], [-0.1510862225418423], [0.5141840714149061], [-0.42056425721772994], [0.04286822435349425], [0.13437344986741626]]}