{"W1": [[0.4967141530112327, -0.12870139846597134, 0.6476885381006925, 1.5230298564080254, -0.23415337472333597, -0.2455924663895412, 1.5342019355007412, 0.7674347291529088, -0.4694755595938741, 0.5425600435859647, -0.4553840230174999, -0.46572975357025687, 0.24196227156603412, -1.913280244657798, -1.7249178325130328, -0.5622875292409727, -1.0128923678860011, 0.3142473325952739, -0.8894317368970721, -1.4182933313039567, 1.4656256932528573, -0.23839477611995985, 0.06752820468792384, -1.4247481932386772, -0.5443827245251827, 0.11092258968026283, -1.1509935774223028, 0.3756980183513663, -0.600638689918805, -0.2916937497932768, -0.6017066122343614, 1.8522781845089378, -0.013497224737933921, -1.0577109289559004, 0.822544912103189, -1.2208436499710222, 0.2088635950047554, -1.9872115405002617, -1.3281860488984305, 0.2279103540179475, 0.7946702428655659, 0.17136811193195725, -0.11564828238824053, -0.24913898309698368, -1.4785219903674274, -0.6662206068605305, -0.4606387709597875, 1.0571222262189157, 0.3436182895684614, -1.763040155362734, 0.3227742678139841, -0.38508228041631654, -0.6769220003059587, 0.6116762888408679, 1.079579263299605, 0.9312801294909451, -0.8392175232226385, -0.366574193186031, 0.3899860740404784, 0.9702443982054454, -0.47917423784528995, -0.18565897666381712, -1.1063349740060282, -1.1962066240806708], [0.812525822394198, 1.473957924005477, -0.07201012158034772, 1.0035328978920242, 0.36163602504763415, -0.6720157521792887, 0.2878096225062498, 1.5380365664659692, -0.03583026158309506, 1.5646436558140062, -2.6229447199393854, 0.8219025043752238, 0.08704706823817122, -0.29900735046586746, 0.0917607765355023, -1.9875689146008928, -0.247564657001462, 0.3571125715117464, 1.4948629851211257, -0.5397636272536817, -0.808646832340543, -0.5711558824603263, 0.9154021177020741, 0.32875110194467594, -0.5297602037670388, 0.51326743304371, 0.09707754934801395, 0.9686449905456277, -0.7020530938773524, -0.3276621465977682, -0.3921081531499503, -1.4635149481321186, 0.29612027706457605, 0.26105527217988933, 0.00511345664246089, -0.23458713337514692, -1.4153707420504142, -0.39824118995516317, -0.3427145165267695, -0.7204114869268359, -0.04846084217258411, 0.40405033828641806, 1.8861859012105302, 0.2448992607743697, 0.25755039072276437, 0.03874893195638133, -1.9187712152990415, -0.026513875449216878, 0.06023020994102644, 2.463242112485286, -0.18729337502681, 0.30154734233361247, -0.03471176970524331, -1.168678037619532, 1.266367579285149, 0.7519330699648185, 0.7910319470430469, -1.0306032749960157, 1.4443040618087621, -1.4303988807193124, 0.5868570938002703, 2.1904556258099785, -0.9905363251306883, -0.5662977296027719], [0.09965136508764122, -0.4811620763575988, -1.5506634310661327, 0.06856297480602733, -1.0623037137261049, 0.4430785389410124, -1.0154386610105062, 1.5499344050175394, -0.783256601991533, -0.3220615162056756, 0.8104544729964676, -1.2308643164339552, 0.22745993460412942, 1.307142754282428, -1.6074832345612275, 0.1846338585323042, 0.21502329848099178, 0.7818228717773104, -1.2181513387746448, -1.337568327185742, 0.5218871988690357, 0.3033403831883634, 0.25049285034587654, 0.3464482031024322, -0.6800247215784908, 0.2322536971031768, 0.29307247329868125, -0.7143514180101169, 1.8657745111447566, 0.4738329209117875, -1.1913034972167988, 0.6565536086338297, -0.9746816702273214, 0.787084603742452, 1.158595579007404, -0.8206823183517105, 0.9633761292443218, 0.37143551034072136, 0.82206015999449, 1.9228215950812608, -0.10606274059511281, -0.753736322761876, -0.8895144296255233, -0.7539556501976107, -0.0771017094141042, 0.40378381558537885, 0.27669079933001905, 0.8271832490360238, 0.01300189187790702, 1.4535340771573169, -0.2695192256288685, 2.720169166589619, 0.6256673477650062, -0.8571575564162826, -0.9440669311292965, 0.48247244488022434, -0.2234627853258509, 0.5926609294751254, 0.519580455631912, -0.10353225995176571, -0.846793718068405, -1.5148472246858646, -0.4465149520670211, 0.8563987943234723], [0.21409374413020396, -1.1189839698824948, 0.17318092585115424, 0.3853173797288368, -0.883857436201133, 0.10994399382175205, 0.0013975315651076764, -1.142970297830623, 0.35777996898490355, 0.5607845263682344, 1.0829466325342059, 1.053802052034903, -1.377669367957091, -0.9378250399151228, 0.5150352672086598, 0.5137859509122088, 0.5168472710042941, 3.852731490654721, 0.5960939899611436, 1.0973437543350992, 0.9539295130809625, 0.5920070602920204, -0.3152692446403456, 0.7589692111656847, -0.7728252145375718, -0.23681860686811937, -0.48536354782910346, 0.08187413940333069, 2.3146585666735087, -1.867265192591748, 0.6862601903428857, -1.6127158711896517, -0.47193186578943347, 1.088950596967366, 0.06428001909546277, -1.0777447779293061, -0.7153037092599682, 0.6347247843522622, -0.7303666317171367, 0.23765112085014117, -0.014601681091063908, -0.651600582978637, 2.1439440893253257, 0.7066278721866814, -2.025142586657607, 0.2793317281252906, -0.661786464768388, 0.852433334796224, -0.7925207384327007, -0.11473644146689901, 0.5146668942068304, 0.8657551941701215, -1.2002964070557762, -0.3345012358409484, -0.28667322880588725, -0.6533291663081087, 1.7654542402810969, 0.22878488694691432, -1.1768248581231602, 0.8795548436015842, 2.1221561970126332, 1.0324652605511468, -1.5193699659540134, -0.48423407286625136]], "b1": [[0.0, 0.0005920552455978475, -1.561645897937289e-16, 0.0, -1.053633804652386e-39, -0.0003689864250006925, -0.0013725575175184766, 0.0, -5.513380527134871e-08, 0.0, -3.768500954162416e-05, 2.793778219532677e-17, -9.373271944338511e-37, 1.361926001981082e-21, 2.2856620935195208e-26, 7.617942258188076e-35, 0.0008505235327835988, 0.0, 0.0002381612685377011, -0.00028522053986120016, -7.95899996623781e-07, -3.3581268194686094e-05, 0.0, -9.355497471353805e-11, 9.049356629318244e-80, -9.445851384198086e-13, -2.41379872286141e-16, 1.820615162479828e-13, 0.0, -2.431837430851535e-75, -2.360148168559827e-13, -6.18656337401828e-38, 9.493269449232429e-23, 0.0, 0.0, -1.5387632763809572e-93, -1.8813233359139318e-35, -0.00026194376099993076, 1.4357302787866524e-27, 0.0004276186588704303, 0.0006859089858133752, -2.604638708357733e-09, 0.0, 0.0007073911766848709, -6.2544227078777e-83, 0.0008628154883573943, -3.138317208076185e-84, 0.0, 3.443517079175147e-18, 0.0, 7.375502107585433e-05, 0.0, 2.027633368707103e-34, 3.880709089013247e-62, 0.0015875746867300509, 4.944191514377668e-10, 0.0, -0.0015139906928414903, 0.0005563753372201088, 0.00036096742884770546, 0.0, 0.0, 3.062310230210072e-127, -1.821673772169742e-23]], "W2_bp": [[1.400928211648702, -0.8462553561049025, 0.4483882561702709], [0.4858023554501279, -0.6492563643942139, -0.048367765266463435], [-3.2412673400690726, -1.0243876413342898, -0.2525681513931603], [-1.1137661195027702, 1.4938254134455133, -1.4255725499365914], [-0.44004448669698376, 0.13074057728609134, 1.4412732890661155], [-1.43569455210326, 1.1626258973721697, 0.010603316726197912], [-0.7939169208648973, 0.3151314444109924, 0.15843999524269534], [-0.4661998146967148, -0.06878380549610295, -0.38074476883771774], [0.11351743881818217, 0.6621305850695814, 1.5860168120298832], [-1.1037984363647697, 1.994447484170145, -1.9475189714984606], [-0.1560944004116942, 0.598064640985512, 0.2755537386102087], [-0.4886824573585136, -0.3467081408433971, -0.4884321066347903], [-0.5893647569442115, 0.8496020970210246, 0.35701548596504734], [-0.6929095952606542, 0.8995998754332507, 0.30729952087660933], [0.8128621188389601, 0.6296288419236122, -0.8289950109220723], [-0.5601810401969696, 0.7472936051232618, 0.6103702654334648], [0.1690842395148657, 0.20268221490987037, 1.002324230708322], [-0.45755432637375004, 0.4085114906839164, -0.19762382440985146], [-0.08296351327958734, 0.9589857949927133, 0.8304897160348728], [0.819490905555814, 1.2996003355084105, 0.020901043723503418], [0.8159704602645597, -0.44885340615511304, 0.3287355130805036], [0.35754511390771915, -0.2281303279693899, 0.43259515012361754], [-0.684203620771394, 1.9538013851993383, -1.001448553475661], [-1.080171550372558, 1.0195249830371478, 0.7962315220106814], [0.6241198170521551, 0.6283455092642799, -0.012246772846914623], [-0.7632373090251836, -0.06278133229107724, -0.6725928834879559], [0.9751197334177512, -0.14705738150213865, -0.8254971967925115], [-0.187368779190674, 0.27434556378917674, -0.5591557247798461], [-0.6882033331043529, 0.10510132100579035, 0.2495353991327654], [-0.5069431753711298, -0.4710383056183228, 0.2320499373576363], [-1.4480843414935358, -1.4074637743802298, -0.7184442212525842], [-0.21344715171184725, 0.3109075655980046, 1.475356216949552], [0.8576596232020194, -0.1599385299634271, -0.01901620790268883], [-0.8685123021757303, -0.15709902647851148, -0.28408981089609586], [0.4567356228001691, -0.9658168340384448, 0.5239153422652135], [1.5327389130025777, -0.1087601484568576, 0.40171172209894146], [0.6901439917111125, -0.40122047188583626, 0.22409248181041677], [0.04061950287616414, 0.0519845382530726, -0.7553453256540772], [0.024510174258942714, 0.49799829124544975, 1.4511436077950417], [1.0905763473795438, 2.012861064418404, -0.7583316910892349], [1.0483062902862867, 0.030252705384650788, 2.166906580005757], [-0.808298263170176, -0.8397218506271966, -0.5993926591825786], [-1.989878661847727, -0.6643409121668828, -0.7545638335296567], [0.2831656424945061, 0.20683634410271803, 1.878318614872028], [0.9504238381860503, -0.5769036556624031, -0.898414671348358], [0.6242568823322435, -1.455105234575057, 1.8339930825830244], [1.179440120721287, -0.4691756521047048, -1.7131345290908775], [1.4878894366274922, -0.25312573573873964, 1.242385139997503], [-1.594427658794367, -0.5993750229537729, 0.005243699718183166], [0.18099765622682185, -0.5886513619653654, 0.62741876037154], [-0.9433809270383108, -0.2736147557158212, 0.12729140006214204], [0.6484558965208276, 0.573028987602768, -1.120073263813828], [-1.5341141707356223, 1.277676821898509, 0.33231401197959165], [-0.7484865365565536, 1.551151975522523, 0.11567463429285867], [1.3044449701984286, -0.05492464248779965, 2.0580432626452905], [1.8893579046829947, -0.38755003875030886, 0.9761397789858023], [0.7793930120472261, 1.2300456670462268, -0.9603546325560632], [0.6923336696860038, 1.0475514633685117, -1.7541486726296018], [-1.0737854543199172, -2.1544150671897797, -0.26369700336073665], [1.057056166327569, 1.0564676273779168, 0.1804702946062754], [1.7626326080333712, -1.5186873487010133, -1.6988136113311134], [0.0784693635654607, 0.2454795584531861, -0.028125920070050853], [-2.0674421000398766, -0.08912003951278841, -1.3044695005048532], [0.6696725488300385, 0.36659824609684827, -0.9398797863273552]], "b2_bp": [[0.1340170624620799, -0.13858589048612152, 0.004568828024042292]], "W2_bg": [[-0.4495055409645489, -1.0977745951888862, -0.08847940034538021], [0.6614731202510675, -0.6182752171894202, 0.4302648866218912], [-0.5302576183724408, -0.7928728322623442, -0.10703035995455783], [-0.9708809460472273, -0.5922103786471202, -1.2236781956610596], [1.9647251329163893, 0.03526355197172861, -0.6997255079925856], [0.2143612016793177, -0.11253664613863791, -0.2211422940305102], [0.455314548084496, 0.6695650225951438, -0.2837063081994353], [-0.5114568642725332, -0.3136127704515808, -2.3277214678077915], [-1.5151910653408567, 1.3668743583022662, 1.6449676257858465], [-0.1846746631842332, 0.5379958897558282, 0.285449851471328], [3.0843679221878824, 1.1222819437757814, -0.1361117375546158], [-0.891179064228279, -1.6450073935575074, 0.1776633327950151], [-0.7563507452843033, -1.4222537095976742, -0.6465728842425266], [-1.081548003614395, 1.6871416350725648, 0.8816397569494505], [-0.007972641316617372, 1.4799441388900259, 0.0773683076476183], [-0.8612842013282637, 1.5231240772696573, 0.5389100436846587], [-0.7569188056203686, -0.43396476941842593, -0.9123195107560279], [-1.3184383545921912, 0.8876164742317032, 1.8836163373979193], [-1.3359105915228917, 0.5251394215066124, -0.6754697362341201], [-0.48738640610140954, -0.5870040094248576, -0.8691196621571143], [0.11288345522593618, -0.8695120898057668, 0.24465697189345723], [0.25630909647376865, -0.5544546914989409, -0.8986042233319725], [-0.512409954196186, 0.7168301525258178, 0.4751168845521727], [-0.9131938683911902, 0.06077123217885829, 0.7255868202147954], [-1.6694052811213718, 0.543360192379935, -0.6626237589458467], [0.634960044964991, -0.8018202298439411, -1.8306824037349212], [-1.6275424378831627, 0.048084946661381994, 0.25972250172148187], [-0.8399552487328543, 0.6000313854775567, -1.6873203653407016], [-0.0017184222751715657, -1.2495772730623913, -0.6776364108743674], [0.047398671316414016, -0.8604133652839524, -0.38455554422982535], [1.006292809214233, -0.5768918695193903, 0.8356921120616004], [-1.129706854657618, 0.5298041779152828, 1.4415686206579004], [-2.4716445001272893, -0.7968952554704768, 0.57707212718054], [-0.1386840096708476, 0.33258480007137203, -0.6297854897880288], [0.15095116384504503, -0.19423830869201594, 1.1419817585875962], [0.2544208433012131, 0.3376026620752022, -0.4118769661224674], [-0.48760622407249354, -0.4325581878196209, 0.39445214237829684], [-0.11059344481236724, 0.3274298402296834, 1.7273547793042734], [0.8711247034316923, -0.32602353216784113, 1.2012139221639448], [-0.345874710610085, -2.075018958846118, -1.0333925496606067], [-1.7933569838945862, -0.4043469632870486, -0.00618307869597626], [1.6764372987302207, 0.3269273990583886, -0.21910054055802464], [0.893766957555636, -2.249696382307823, 0.20981425503635776], [0.831967736213258, -1.5133416838701061, 1.1174069389709016], [0.3384964074944141, -0.4152879139008013, 0.6327818661062848], [2.3334265238009246, 0.145212392665344, 0.22214078269696597], [-0.4593608995402441, -0.8498443694647918, 0.8303358165442456], [-0.7917224495367204, 0.03300516391945571, -0.5034577498373248], [0.47897982574639186, 0.3336621052869483, 1.0375399442578992], [-0.4456550224826024, -0.30843600859330805, -1.0045640188545175], [-0.36608812564726856, 0.34123908196704933, 0.7148448932943114], [-0.8578039478054786, 0.831044846805722, 1.3298375557327398], [0.41343490322370086, 1.876795812558066, -0.773789199103573], [-1.244654703311417, -1.7787202489042786, 1.496044311489183], [0.7072234832550495, -0.09365779628406316, 0.2651839247924399], [-1.0611276709092403, 2.407190906085196, 0.10342087911771956], [0.173756170977038, 0.6872055505987538, 0.45520892866450513], [0.23010223445036546, -0.7927704295301081, 0.46754612104955884], [1.9381671738675446, 1.292504936786204, 1.5899590586156573], [-0.3931021907061964, -1.0877412124824617, -0.14576401360075297], [0.12008628866083966, 1.055630445171014, -1.7182649327870305], [1.5939116958327588, -0.19656897187892589, -0.45268137301962813], [-1.0121043752601675, -1.6548566718657693, 0.8231705839619146], [0.07331796718840389, -1.2899608997410539, -1.295078772063616]], "b2_bg": [[0.06436137637214515, -0.03856107329993675, -0.025800303072208288]]}